%YAML:1.0
---
opencv_ml_svm:
   format: 3
   svmType: C_SVC
   kernel:
      type: LINEAR
   C: 1.0000000000000001e-01
   term_criteria: { epsilon:1.1920928955078125e-07, iterations:1000 }
   var_count: 18
   class_count: 6
   class_labels: !!opencv-matrix
      rows: 6
      cols: 1
      dt: i
      data: [ 0, 1, 2, 3, 4, 5 ]
   sv_total: 15
   support_vectors:
      - [ 1.03811590e-05, -1.89943478e-06, -8.48172385e-06,
          1.04038254e-05, -1.90973765e-06, -8.49408752e-06,
          9.42670249e-06, -2.13846101e-06, -7.28824125e-06,
          7.75681474e-06, -7.47822605e-06, -2.78589255e-07,
          1.56026465e-06, -8.09392475e-07, -7.50872232e-07,
          1.04363826e-05, -1.53594999e-06, -8.90043248e-06 ]
      - [ 1.15075218e-05, -3.08364247e-06, -8.42387908e-06,
          1.04559231e-05, -7.29271278e-06, -3.16321029e-06,
          3.70832777e-06, -2.55650434e-06, -1.15182320e-06,
          6.15504348e-07, -2.62038839e-07, -3.53465509e-07,
          9.56766871e-06, -2.96237772e-06, -6.60529122e-06,
          1.15205276e-05, -3.07216624e-06, -8.44836177e-06 ]
      - [ 2.26404627e-05, -1.08773984e-05, -1.17630643e-05,
          2.03023046e-05, -1.00767556e-05, -1.02255481e-05,
          1.50067281e-05, -8.78722585e-06, -6.21950267e-06,
          4.62672051e-06, -2.28714453e-06, -2.33957599e-06,
          1.33487611e-05, -1.08037111e-05, -2.54505039e-06,
          2.26716384e-05, -1.06478337e-05, -1.20238046e-05 ]
      - [ 2.03284308e-05, -7.15061742e-06, -1.31778143e-05,
          1.17094287e-05, -7.21065544e-06, -4.49877325e-06,
          5.64865195e-06, -4.35732818e-06, -1.29132400e-06,
          1.81233099e-06, -1.17430091e-06, -6.38030087e-07,
          1.77986985e-05, -6.19001094e-06, -1.16086876e-05,
          2.03477648e-05, -7.07124536e-06, -1.32765199e-05 ]
      - [ 1.20825898e-05, -3.98735483e-06, -8.09523499e-06,
          1.44277974e-05, -6.06740832e-06, -8.36038907e-06,
          1.53749188e-05, -7.77484001e-06, -7.60007924e-06,
          1.06905309e-05, -1.03048524e-05, -3.85678675e-07,
          1.45884969e-05, -6.32051024e-06, -8.26798623e-06,
          1.88510494e-05, -5.12129054e-06, -1.37297593e-05 ]
      - [ 6.11184896e-06, -1.87048215e-06, -4.24136670e-06,
          4.07724065e-06, -1.31908209e-05, 9.11357984e-06,
          -1.32128644e-05, -4.88291016e-06, 1.80957741e-05,
          -1.62778269e-05, 1.37843017e-05, 2.49352547e-06,
          2.45360261e-05, -8.92343269e-06, -1.56125934e-05,
          6.12733265e-06, -2.86689965e-06, -3.26043278e-06 ]
      - [ -3.12907628e-06, -1.22437868e-05, 1.53728633e-05,
          -6.35675906e-06, -1.30572607e-05, 1.94140193e-05,
          -7.78538833e-06, -9.51067159e-06, 1.72960590e-05,
          -2.33421197e-05, 2.63819475e-05, -3.03982893e-06,
          6.27803411e-06, -8.61037552e-06, 2.33234141e-06,
          -3.23965241e-06, -1.33208696e-05, 1.65605215e-05 ]
      - [ 6.85420389e-07, -1.31212164e-06, 6.26701251e-07,
          -6.29251872e-06, -1.47747169e-05, 2.10672351e-05,
          -1.40670736e-05, -6.51450819e-06, 2.05815813e-05,
          -2.26419434e-05, 2.23279130e-05, 3.14029762e-07,
          2.16340977e-05, -9.49622245e-06, -1.21378753e-05,
          5.58817419e-07, -2.53930875e-06, 1.98049133e-06 ]
      - [ -4.00278077e-05, 7.59508430e-06, 3.24327229e-05,
          -1.62444339e-05, -1.20086543e-05, 2.82530891e-05,
          -7.94130756e-06, 3.13472674e-06, 4.80658082e-06,
          -2.28913032e-05, 2.17341058e-05, 1.15719763e-06,
          2.31564281e-05, -5.26509302e-06, -1.78913360e-05,
          -1.49936632e-05, 5.87644308e-06, 9.11721963e-06 ]
      - [ -1.34873626e-05, -9.62464401e-06, 2.31120066e-05,
          -1.53606215e-05, 1.35644987e-05, 1.79612255e-06,
          8.74443140e-06, -5.28928922e-06, -3.45514172e-06,
          4.72819238e-06, -3.05889444e-06, -1.66929772e-06,
          -2.47255903e-05, -5.90168611e-06, 3.06272777e-05,
          -1.33208359e-05, -9.24267169e-06, 2.25635085e-05 ]
      - [ -4.02904443e-05, 1.33439326e-05, 2.69465108e-05,
          -1.12746646e-04, 4.30561486e-05, 6.96904972e-05,
          4.32667293e-05, -3.89297384e-05, -4.33699188e-06,
          1.12174512e-05, -1.08394288e-05, -3.78022747e-07,
          -4.69170773e-05, -5.88909788e-05, 1.05808052e-04,
          -4.11394285e-05, 1.48271838e-05, 2.63122474e-05 ]
      - [ -2.62294016e-05, 4.95538325e-06, 2.12740179e-05,
          -1.42371873e-05, 1.47674264e-05, -5.30238538e-07,
          1.22587026e-05, -1.88568478e-07, -1.20701343e-05,
          1.42849904e-05, -1.56435999e-05, 1.35860853e-06,
          -1.32905370e-05, -8.48340790e-07, 1.41388782e-05,
          -1.53055207e-05, 7.03982323e-06, 8.26569703e-06 ]
      - [ 2.07394150e-05, 2.69336870e-05, -4.76731038e-05,
          -1.99776059e-05, 5.13862233e-06, 1.48389836e-05,
          -3.11126132e-05, 1.89738294e-05, 1.21387829e-05,
          -1.75805053e-05, 6.19874299e-06, 1.13817614e-05,
          4.92643994e-05, 1.74067627e-05, -6.66711639e-05,
          2.06060831e-05, 2.55118885e-05, -4.61179734e-05 ]
      - [ -3.36926241e-05, 3.42072344e-05, -5.14611258e-07,
          1.38726136e-07, 1.39855092e-05, -1.41242353e-05,
          3.10440046e-05, -1.12406831e-07, -3.09315983e-05,
          4.43624704e-05, -5.43590068e-05, 9.99653730e-06,
          2.24878186e-05, 1.43360594e-05, -3.68238798e-05,
          8.04403680e-06, 2.89377313e-05, -3.69817681e-05 ]
      - [ -4.71347776e-05, 1.29801956e-05, 3.41545820e-05,
          2.73857199e-06, 1.30006265e-05, -1.57391987e-05,
          3.65219603e-05, -1.42296649e-05, -2.22922936e-05,
          3.75726231e-05, -4.04450948e-05, 2.87247053e-06,
          -5.78407435e-06, -6.52124299e-06, 1.23053178e-05,
          -1.30647513e-05, 9.07179674e-06, 3.99295504e-06 ]
   uncompressed_sv_total: 23
   uncompressed_support_vectors:
      - [ 166423., 7676., 8301., 168073., 7111., 7216., 171810., 6201.,
          4389., 179135., 1614., 1651., 172980., 7624., 1796., 166401.,
          7514., 8485. ]
      - [ 168648., 4243., 9509., 162428., 9729., 10243., 162527., 7103.,
          12770., 170535., 11598., 267., 166927., 8486., 6987., 161477.,
          2026., 18897. ]
      - [ 152318., 8061., 22021., 155067., 19064., 8269., 172706., 6683.,
          3011., 180791., 685., 924., 157389., 7744., 17267., 152284.,
          8031., 22085. ]
      - [ 182400., 0., 0., 182400., 0., 0., 182400., 0., 0., 182400., 0.,
          0., 182400., 0., 0., 182400., 0., 0. ]
      - [ 153473., 5567., 23360., 157838., 17107., 7455., 168108.,
          10307., 3985., 180313., 1110., 977., 159664., 12306., 10430.,
          153459., 5494., 23447. ]
      - [ 152947., 4299., 25154., 154871., 17079., 10450., 161185.,
          15874., 5341., 181295., 621., 484., 161167., 16871., 4362.,
          152947., 4280., 25173. ]
      - [ 160326., 12685., 9389., 164156., 11312., 6932., 169096., 9026.,
          4278., 178388., 2127., 1885., 169585., 11668., 1147., 160221.,
          12415., 9764. ]
      - [ 164348., 9483., 8569., 166961., 8579., 6860., 171148., 8213.,
          3039., 178852., 1645., 1903., 170861., 9182., 2357., 164321.,
          9213., 8866. ]
      - [ 154711., 11326., 16363., 166289., 10388., 5723., 176169.,
          4432., 1799., 180615., 1276., 509., 159597., 5773., 17030.,
          154711., 11250., 16439. ]
      - [ 151183., 6789., 24428., 152433., 21600., 8367., 169384., 8915.,
          4101., 177547., 2449., 2404., 160337., 5774., 16289., 151180.,
          6423., 24797. ]
      - [ 158016., 14240., 10144., 161653., 12745., 8002., 166054.,
          10416., 5930., 178027., 2702., 1671., 172509., 9502., 389.,
          157857., 14074., 10469. ]
      - [ 170043., 2174., 10183., 162363., 8484., 11553., 162072., 4184.,
          16144., 170917., 11178., 305., 171190., 3652., 7558., 161883.,
          1843., 18674. ]
      - [ 169469., 3164., 9767., 166020., 6039., 10341., 165199., 6634.,
          10567., 172729., 9065., 606., 171293., 5889., 5218., 164167.,
          3002., 15231. ]
      - [ 157210., 4609., 20581., 157155., 4634., 20611., 159526., 5189.,
          17685., 163578., 18146., 676., 178614., 1964., 1822., 157076.,
          3727., 21597. ]
      - [ 156496., 5141., 20763., 160952., 13789., 7659., 167927., 9441.,
          5032., 179098., 2227., 1075., 164833., 8287., 9280., 156460.,
          5069., 20871. ]
      - [ 156089., 3304., 23007., 156046., 3021., 23333., 156686., 5368.,
          20346., 167266., 11970., 3164., 179423., 2741., 236., 156022.,
          2493., 23885. ]
      - [ 162183., 10152., 10065., 164750., 10072., 7578., 167860.,
          9261., 5279., 177422., 2448., 2530., 172505., 9262., 633.,
          162112., 9609., 10679. ]
      - [ 150887., 5057., 26456., 152611., 14642., 15147., 168446.,
          9594., 4360., 181052., 594., 754., 158021., 10420., 13959.,
          150800., 5105., 26495. ]
      - [ 162886., 11191., 8323., 166036., 9373., 6991., 171691., 7141.,
          3568., 177871., 2314., 2215., 169686., 9905., 2809., 162839.,
          11003., 8558. ]
      - [ 162423., 7027., 12950., 170893., 7086., 4421., 176849., 4282.,
          1269., 180619., 1154., 627., 164909., 6083., 11408., 162404.,
          6949., 13047. ]
      - [ 169952., 3553., 8895., 166350., 7035., 9015., 165655., 9371.,
          7374., 172206., 10008., 186., 165953., 8453., 7994., 162772.,
          4265., 15363. ]
      - [ 159122., 12103., 11175., 161044., 12625., 8731., 164283.,
          11015., 7102., 177890., 1962., 2548., 174772., 7241., 387.,
          159056., 11881., 11463. ]
      - [ 170370., 3970., 8060., 168035., 6041., 8324., 167092., 7741.,
          7567., 171756., 10260., 384., 167875., 6293., 8232., 163631.,
          5099., 13670. ]
   decision_functions:
      -
         sv_count: 1
         rho: 8.1136476426736923e+00
         alpha: [ 1. ]
         index: [ 0 ]
      -
         sv_count: 1
         rho: 7.6412853409212236e+00
         alpha: [ 1. ]
         index: [ 1 ]
      -
         sv_count: 1
         rho: 1.6984026560429129e+01
         alpha: [ 1. ]
         index: [ 2 ]
      -
         sv_count: 1
         rho: 1.3162504168056021e+01
         alpha: [ 1. ]
         index: [ 3 ]
      -
         sv_count: 1
         rho: 1.4689202642754150e+01
         alpha: [ 1. ]
         index: [ 4 ]
      -
         sv_count: 1
         rho: 1.6262705726516311e+00
         alpha: [ 1. ]
         index: [ 5 ]
      -
         sv_count: 1
         rho: -5.3105305198308228e+00
         alpha: [ 1. ]
         index: [ 6 ]
      -
         sv_count: 1
         rho: -2.7763044917949835e+00
         alpha: [ 1. ]
         index: [ 7 ]
      -
         sv_count: 1
         rho: -1.1174621831561989e+01
         alpha: [ 1. ]
         index: [ 8 ]
      -
         sv_count: 1
         rho: -7.4287072539851975e+00
         alpha: [ 1. ]
         index: [ 9 ]
      -
         sv_count: 1
         rho: -2.4880857977008120e+01
         alpha: [ 1. ]
         index: [ 10 ]
      -
         sv_count: 1
         rho: -5.7105850354921603e+00
         alpha: [ 1. ]
         index: [ 11 ]
      -
         sv_count: 1
         rho: 2.4533365342865707e+00
         alpha: [ 1. ]
         index: [ 12 ]
      -
         sv_count: 1
         rho: 1.1920062755854323e+01
         alpha: [ 1. ]
         index: [ 13 ]
      -
         sv_count: 1
         rho: 2.6196272269378804e+00
         alpha: [ 1. ]
         index: [ 14 ]
